<?xml version="1.0"?>
<opencv_storage>
<my_svm type_id="opencv-ml-svm">
  <svm_type>C_SVC</svm_type>
  <kernel><type>LINEAR</type></kernel>
  <C>1.0000000000000000e-02</C>
  <term_criteria><epsilon>1.1920928955078125e-07</epsilon>
    <iterations>50000</iterations></term_criteria>
  <var_all>3780</var_all>
  <var_count>3780</var_count>
  <class_count>2</class_count>
  <class_labels type_id="opencv-matrix">
    <rows>1</rows>
    <cols>2</cols>
    <dt>i</dt>
    <data>
      -1 1</data></class_labels>
  <sv_total>1</sv_total>
  <support_vectors>
    <_>
      -5.02204411e-02 1.75006688e-02 2.75427755e-02 -6.00668378e-02
      -6.12458587e-03 -6.05427511e-02 -9.25599504e-03 -1.42989475e-02
      -7.65125304e-02 -1.03078894e-01 3.07083074e-02 4.19704616e-02
      -6.52262792e-02 1.34676527e-02 -1.10238060e-01 -1.15950704e-02
      -1.69545095e-02 -9.67419147e-02 -4.64946479e-02 2.75321957e-02
      2.99416240e-02 -7.87025243e-02 -4.71280441e-02 -1.55633483e-02
      2.83700172e-02 5.53124305e-03 -4.99805212e-02 -6.55666962e-02
      3.13456543e-02 4.43879813e-02 -9.59614143e-02 -2.96621695e-02
      -5.10439165e-02 3.05075124e-02 1.38714993e-02 -3.80015820e-02
      -5.18036783e-02 2.07286365e-02 -1.77519079e-02 -3.29621546e-02
      5.63691631e-02 -5.84294051e-02 3.18628587e-02 -7.60041410e-03
      -8.59097242e-02 -5.35112694e-02 -1.68592650e-02 -3.48058753e-02
      -6.12063706e-02 4.87141274e-02 -3.20215933e-02 1.02756638e-02
      -3.82229388e-02 -8.65281522e-02 -3.95817086e-02 3.49849239e-02
      1.73689949e-03 -2.28647720e-02 -2.11007223e-02 -3.79959680e-02
      5.96546158e-02 1.53735066e-02 -4.27396037e-02 -6.90638423e-02
      1.13383997e-02 2.50680242e-02 -6.72516748e-02 -5.13562709e-02
      -2.14689560e-02 2.62660030e-02 1.44722741e-02 -5.19016869e-02
      -2.37401072e-02 -3.32343914e-02 -2.81932615e-02 -5.30388840e-02
      2.14599706e-02 -5.73848337e-02 -1.08025344e-02 -4.29412946e-02
      -2.49187779e-02 -5.83508834e-02 -3.42562012e-02 -3.07357311e-02
      -6.34634867e-02 4.80378270e-02 -7.20379278e-02 -3.34796235e-02
      -4.00414355e-02 -3.31733376e-02 5.51931933e-03 -2.37167720e-02
      3.60201637e-04 -2.24320628e-02 -5.89075163e-02 -3.87813747e-02
      -2.79477276e-02 1.08055212e-02 1.41393929e-03 1.05902450e-02
      1.73160117e-02 -2.61692971e-04 -2.85724993e-03 -1.20248105e-02
      -1.96736716e-02 -1.13642041e-03 -1.72098316e-02 1.11990822e-02
      -1.00837077e-03 -4.62690443e-02 -2.20395625e-02 -4.97509763e-02
      7.92679861e-02 -3.32336798e-02 -9.37804952e-03 2.74592312e-03
      1.63219012e-02 4.02587205e-02 -1.36247445e-02 2.44447552e-02
      -8.58154520e-03 9.95552838e-02 -2.20452920e-02 1.36150531e-02
      2.13309359e-02 3.52826789e-02 -8.34955182e-03 -2.85796709e-02
      -9.89747467e-04 2.46496908e-02 1.21273601e-03 4.12403699e-03
      1.43785914e-03 -3.08544151e-02 1.57637931e-02 -1.33967353e-02
      1.76917184e-02 4.37599719e-02 4.63864282e-02 2.81023397e-03
      3.99180315e-02 2.44110748e-02 4.36319970e-03 2.33380031e-02
      2.30361242e-02 -5.14643751e-02 3.27172205e-02 -3.55911106e-02
      2.30468567e-02 -6.32097274e-02 -8.92923772e-03 -3.17379907e-02
      1.06541449e-02 4.02708799e-02 4.11455892e-02 9.16360766e-02
      4.26330939e-02 5.74413575e-02 1.20983189e-02 3.63248326e-02
      -2.80727036e-02 -1.40997078e-02 -2.61793863e-02 -4.38702740e-02
      3.89408246e-02 6.38960535e-03 -9.77611914e-02 -5.08761518e-02
      -2.38377936e-02 -7.72144496e-02 -5.92417549e-03 9.46736895e-03
      1.81800015e-02 1.11477800e-01 5.64663224e-02 -5.43807968e-02
      -2.73996107e-02 1.73261892e-02 -5.72516918e-02 -1.59981567e-02
      3.79521325e-02 4.38438170e-02 5.53866401e-02 -3.67975570e-02
      1.94339454e-02 -2.69983010e-03 3.68978269e-02 -6.37430400e-02
      -2.36130413e-02 4.85841222e-02 6.16892092e-02 8.26611891e-02
      -1.45461177e-02 6.79664910e-02 3.66758555e-02 6.42707720e-02
      -6.22171350e-03 9.42802150e-03 -2.25468688e-02 -2.38873288e-02
      6.18889295e-02 -4.01094146e-02 -9.77558419e-02 -3.96565273e-02
      3.82022932e-02 -9.88768041e-02 -2.93799341e-02 -1.23130213e-02
      5.56400046e-03 7.17072114e-02 -1.60365365e-02 -8.46840888e-02
      2.20645163e-02 4.80792969e-02 -2.72293203e-02 2.48498376e-03
      -1.42387636e-02 2.37257741e-02 2.34336350e-02 -8.31759870e-02
      1.30711633e-04 1.10705034e-03 3.94568369e-02 -4.33504507e-02
      -4.65042703e-02 2.31968183e-02 3.06195617e-02 7.54532665e-02
      -2.39729043e-02 5.23123145e-02 7.05314521e-03 1.12019755e-01
      -2.53510047e-02 -2.37860740e-03 -3.07001546e-02 -9.91821848e-03
      7.39565643e-04 -6.87395260e-02 -1.18168503e-01 9.16449539e-03
      3.97144072e-02 -4.98750061e-02 -1.78502947e-02 2.35730298e-02
      2.86457241e-02 2.91269608e-02 6.07903441e-03 -4.16669659e-02
      2.89317332e-02 1.36718825e-01 1.06895072e-02 2.13591978e-02
      5.49323577e-03 -1.98217332e-02 5.78380227e-02 -4.13441174e-02
      4.28179465e-02 -4.99457680e-02 5.27317412e-02 -6.22854270e-02
      -2.73070186e-02 4.13700305e-02 1.17872702e-02 7.70008117e-02
      2.58565638e-02 9.19854268e-02 -3.99009697e-02 3.91096845e-02
      -5.38788587e-02 1.93375014e-02 -3.09995958e-03 -2.03488767e-02
      -1.86927803e-03 -3.30859311e-02 -2.37651728e-02 -2.75878962e-02
      5.87748699e-02 -6.05602413e-02 -2.29595434e-02 -1.29267527e-02
      3.57173645e-04 6.87760711e-02 2.11553127e-02 2.39530746e-02
      4.05043643e-03 1.94586366e-02 -3.84505764e-02 -2.12623607e-02
      5.15096635e-02 6.92309113e-03 -7.71609601e-03 -4.90296669e-02
      6.28389567e-02 -4.77874875e-02 6.98264455e-03 -6.34267647e-03
      2.10730061e-02 5.25705740e-02 3.27928877e-03 7.09464820e-03
      -6.90669492e-02 9.02996287e-02 -9.31810867e-03 3.26787978e-02
      1.12932110e-02 2.88147330e-02 -3.55802178e-02 -1.97714530e-02
      1.77236591e-02 3.09491809e-03 -2.03994755e-02 -4.50049490e-02
      -6.91481121e-03 -4.52977605e-02 -1.14481216e-02 3.05403508e-02
      -3.52707729e-02 1.39586721e-02 -4.11797734e-03 2.01028399e-02
      -2.42538727e-03 3.66507955e-02 -3.22152511e-03 1.67847369e-02
      5.63747026e-02 2.94226222e-02 4.56060208e-02 -5.13761230e-02
      1.01704001e-01 1.10381478e-02 5.81604317e-02 -1.81377269e-02
      1.34594264e-02 -6.18148246e-04 3.18675861e-02 9.78142843e-02
      2.93049682e-02 8.77012387e-02 -1.42402463e-02 5.09582981e-02
      -4.52971831e-02 -6.28262991e-03 3.16730663e-02 8.79917177e-04
      2.78602764e-02 -3.40999551e-02 1.04335311e-03 8.67906213e-03
      5.80385178e-02 -2.94458866e-02 1.60334706e-02 1.96647681e-02
      1.39385108e-02 7.44008422e-02 3.26537411e-03 -1.53070726e-02
      1.60923158e-03 6.49888590e-02 -2.41765045e-02 -2.98487372e-03
      1.91148277e-02 4.65079583e-03 3.63686308e-02 -3.41928229e-02
      7.70516321e-02 -3.42897102e-02 4.98706177e-02 -4.34407294e-02
      8.51287786e-03 5.50764874e-02 4.84588593e-02 4.13757302e-02
      -5.04719801e-02 8.23435858e-02 -2.40477249e-02 4.21417616e-02
      -3.14705167e-03 4.66129370e-02 3.19427326e-02 -2.11072098e-02
      2.17877105e-02 -3.69971953e-02 -1.14365872e-02 -2.01459806e-02
      2.70651802e-02 -4.64839153e-02 2.74176281e-02 2.40851734e-02
      -3.58522870e-03 2.08693687e-02 -4.13427502e-02 -4.64813039e-02
      -2.75833551e-02 3.74334380e-02 -2.10481267e-02 3.22245881e-02
      4.63680811e-02 3.71316187e-02 2.04885788e-02 -6.69637695e-02
      4.73657027e-02 -2.84452159e-02 3.67116518e-02 -6.27923384e-03
      3.67534645e-02 3.06227952e-02 2.36746073e-02 3.50929350e-02
      -1.73771419e-02 1.30912706e-01 1.44894072e-03 9.31611434e-02
      1.17623592e-02 3.87129001e-02 -1.64595991e-02 1.24810939e-03
      2.66905278e-02 -3.08262780e-02 -6.26451522e-02 -5.99200726e-02
      7.33494712e-03 -6.09627599e-03 -9.79254488e-03 2.10161414e-02
      1.35146733e-02 1.31591558e-02 -1.73133109e-02 2.33992431e-02
      -2.14192849e-02 3.31620947e-02 2.54063867e-02 3.04052187e-03
      5.26254401e-02 -1.54358801e-03 -2.54038181e-02 -7.12394714e-02
      8.85008499e-02 -1.52535280e-02 4.48711924e-02 -3.56846303e-03
      3.20062749e-02 5.24398983e-02 -5.81050175e-04 -1.10776499e-02
      1.08438889e-02 8.37791488e-02 3.76137495e-02 8.68908782e-03
      -1.79964472e-02 2.79858988e-02 2.15171315e-02 -2.66429931e-02
      -3.95316668e-02 -6.30298108e-02 -2.63518915e-02 -4.51739430e-02
      -1.45506536e-04 -1.99531186e-02 1.85208358e-02 2.36012526e-02
      -1.52598554e-02 -2.75459941e-02 1.91810373e-02 -7.10173789e-03
      2.32706196e-03 -2.95759551e-02 -9.15219728e-03 1.31766114e-03
      5.68738999e-03 -5.52818812e-02 -6.89076856e-02 -4.59040329e-02
      4.96818237e-02 2.16632010e-03 3.49147106e-03 -4.65166122e-02
      -3.38192051e-03 2.57205833e-02 -6.57257577e-03 -1.21971061e-02
      -3.23931575e-02 4.04681824e-02 -3.88182625e-02 1.19060436e-02
      2.80002132e-02 1.29032498e-02 7.45657831e-03 -3.88402082e-02
      -5.41436784e-02 1.72903594e-02 -2.98145711e-02 7.60304159e-04
      -7.99757708e-03 -1.71851143e-02 -1.73480064e-02 3.92024815e-02
      3.11333146e-02 7.56955612e-03 -1.06383627e-02 -1.36565408e-02
      7.96071347e-03 5.38265668e-02 4.42629792e-02 7.67063722e-03
      -4.58044708e-02 4.96953912e-03 3.40495408e-02 -5.56016304e-02
      8.52535367e-02 -5.74962050e-02 6.39684658e-05 2.31536254e-02
      -5.36115542e-02 3.90650472e-03 4.98791076e-02 1.20072858e-02
      -2.99774427e-02 1.39977366e-01 -3.40277776e-02 -2.68892609e-02
      -9.43399034e-03 -1.31631801e-02 -5.30906282e-02 5.19572757e-02
      4.81547751e-02 -3.56829166e-02 3.40858959e-02 -3.25123146e-02
      2.77900565e-02 2.93862447e-02 -6.77605495e-02 -2.82023307e-02
      3.08088139e-02 2.60726567e-02 2.08625793e-02 5.10672070e-02
      -1.34738414e-02 -1.48451850e-02 7.59683363e-03 -2.36656126e-02
      -5.39787412e-02 2.83134896e-02 3.83364595e-03 -5.83596453e-02
      -5.47639355e-02 -1.33180311e-02 2.05707904e-02 1.79124251e-02
      -3.33214877e-03 -1.13123953e-01 -3.67339514e-03 4.69567487e-03
      -5.37632741e-02 -6.04322143e-02 -2.84525193e-02 -1.41128916e-02
      -2.60936562e-02 -6.82395324e-02 4.27239109e-03 4.59736325e-02
      2.99981982e-02 -6.52379096e-02 -4.12006117e-02 -4.44889292e-02
      6.04408979e-03 1.63843129e-02 2.47568619e-02 -6.92585781e-02
      1.96657907e-02 4.61248197e-02 1.25419805e-02 -2.44037937e-02
      -2.05465965e-02 -2.16908213e-02 -5.06119020e-02 -7.77228400e-02
      -7.63875395e-02 1.85478814e-02 2.10399106e-02 1.90197043e-02
      -4.89255339e-02 -3.38821001e-02 1.70590170e-02 -1.95938516e-02
      -6.52694926e-02 -5.81834204e-02 2.59679109e-02 3.81451435e-02
      3.00983377e-02 -4.97055463e-02 -2.52904650e-02 -1.71265774e-03
      3.10590724e-03 -6.12100959e-02 -3.92586552e-02 3.81505005e-02
      1.61050558e-02 3.99163216e-02 -4.50798795e-02 -6.67528138e-02
      2.01239251e-02 2.21363604e-02 -4.69205640e-02 -5.63286468e-02
      3.74291204e-02 2.58719139e-02 2.16879398e-02 -3.50392237e-02
      -4.09390181e-02 6.76614791e-02 3.33466716e-02 -2.07000133e-02
      -2.83357464e-02 -1.79722439e-02 -8.57543945e-03 -2.47120522e-02
      -7.97897428e-02 -2.98447032e-02 -1.25191184e-02 1.63933765e-02
      -3.51345502e-02 -2.49745976e-02 -2.19053961e-02 2.47110962e-03
      1.22684687e-02 -4.86553758e-02 -3.56316827e-02 -3.66880745e-02
      -4.29194532e-02 -5.57849295e-02 -1.70524064e-02 5.34353629e-02
      3.73597294e-02 1.22951055e-02 -7.43988082e-02 -2.50360966e-02
      2.60714442e-02 -2.36885287e-02 -2.13912576e-02 1.82316229e-02
      4.86701541e-02 2.47734170e-02 -3.09576970e-02 -7.16012940e-02
      -1.31920595e-02 -3.56612653e-02 -5.62290847e-02 -3.42413299e-02
      6.30391529e-03 -3.61789837e-02 2.78284792e-02 6.56143352e-02
      6.55140961e-03 7.15432363e-03 -1.50755290e-02 -2.31373757e-02
      -7.46362610e-04 -2.71896049e-02 -3.15065272e-02 5.57422973e-02
      7.12576210e-02 -2.31663557e-03 -4.99576284e-03 7.42916437e-03
      1.09477350e-02 3.79513800e-02 4.06914279e-02 -8.64047706e-02
      -1.04942024e-01 -4.97617908e-02 -2.27930676e-02 4.73393686e-03
      -9.16171167e-03 -8.82139802e-03 2.14771666e-02 -4.96350341e-02
      -1.58346370e-01 -5.84834479e-02 8.20530672e-03 1.81726590e-02
      -1.19538251e-02 1.25293583e-02 6.23241700e-02 4.46218625e-02
      -8.31917599e-02 -1.19615175e-01 5.40693477e-02 4.57267761e-02
      -7.13528320e-02 -2.88540591e-02 -1.15618967e-02 -2.33368333e-02
      1.68848485e-02 -5.24258874e-02 -6.15912527e-02 1.17329076e-01
      6.86236471e-02 -4.62959409e-02 -1.28502827e-02 2.51047891e-02
      -2.21670344e-02 3.88791785e-02 -8.52513462e-02 -1.82301417e-01
      3.94055918e-02 3.08406856e-02 -3.48330066e-02 -4.41563427e-02
      -1.62908509e-02 2.58501596e-03 9.11819562e-02 -3.41182314e-02
      -5.94338030e-02 1.15971990e-01 3.42233963e-02 -1.66910924e-02
      -2.24354980e-03 1.23589495e-02 3.17374766e-02 6.20808825e-02
      -9.71793309e-02 -1.05386958e-01 3.94427180e-02 6.71501737e-03
      -7.76666254e-02 -4.06651944e-02 -1.19864233e-02 -8.67939368e-02
      -1.47256125e-02 -4.01098505e-02 -5.20990193e-02 6.29201531e-02
      1.38816591e-02 -5.68064041e-02 2.73874011e-02 2.26918571e-02
      -5.04715033e-02 1.35295084e-02 -5.42809218e-02 -1.02390788e-01
      2.34634914e-02 -1.29242940e-03 -2.61978358e-02 -3.80178206e-02
      -4.59634736e-02 -2.81891506e-02 5.38072996e-02 -1.07105579e-02
      -5.39053753e-02 5.17798737e-02 2.08580447e-03 -2.46949168e-03
      3.31107080e-02 -3.74834472e-03 6.64139027e-03 7.84388408e-02
      -2.10220274e-02 -2.80162729e-02 4.37665544e-03 -3.44335549e-02
      -6.68684021e-02 7.63505837e-03 9.83678456e-03 -7.41905645e-02
      -1.89782530e-02 2.46064756e-02 1.20325817e-03 6.39292225e-03
      1.27555830e-02 6.59232074e-03 3.94839644e-02 5.79193123e-02
      -2.03134213e-02 2.56702304e-02 -6.49063066e-02 -1.24662250e-01
      4.46917582e-03 -3.08826342e-02 -3.24161723e-02 3.10090254e-03
      -1.45779504e-02 -1.30336462e-02 2.35978309e-02 -5.31602129e-02
      -9.21100304e-02 6.17872132e-03 1.43344365e-02 -3.21895437e-04
      4.62439768e-02 2.61216294e-02 3.06010712e-03 -2.61147600e-02
      -1.87494268e-03 -8.48735310e-03 -2.11423077e-03 -1.56192640e-02
      6.56796759e-03 3.05907056e-02 4.75240611e-02 -4.24417444e-02
      -2.49497704e-02 2.66511273e-02 4.08962602e-04 5.48202917e-02
      1.04925949e-02 9.28520132e-03 2.92773303e-02 2.25323252e-02
      -3.69463041e-02 3.15340306e-03 -7.79930055e-02 -9.47790369e-02
      -5.85297449e-03 -2.23147380e-03 8.61999113e-03 -1.70820728e-02
      -5.25881397e-03 -4.15813811e-02 3.30039323e-03 -7.12656602e-02
      -4.03167754e-02 2.14869324e-02 -2.67716777e-02 -5.71704619e-02
      -7.04858676e-02 -4.09155898e-02 -7.72877336e-02 -8.21032822e-02
      2.61437278e-02 -1.80425178e-02 4.69503514e-02 -9.68878902e-03
      -6.08847663e-02 -1.32815233e-02 5.21569736e-02 -1.75339356e-02
      8.08910187e-03 3.84220071e-02 -3.30964550e-02 5.88821173e-02
      3.52961272e-02 -1.87174957e-02 2.41119675e-02 8.02635252e-02
      3.30012813e-02 6.96366653e-02 -4.60798480e-02 -3.41871604e-02
      4.58714319e-03 -7.32275918e-02 -1.52082086e-01 -8.88262689e-02
      -4.00616974e-02 -9.36245546e-02 -4.71391939e-02 -2.97544505e-02
      4.22667200e-03 3.09816692e-02 -4.63226177e-02 -1.17640086e-01
      -7.05147162e-02 1.87444724e-02 -1.67591702e-02 8.51774868e-03
      3.97697501e-02 6.21727377e-04 5.63624129e-02 1.64201651e-02
      -1.10792676e-02 2.05665827e-02 6.49099648e-02 2.80498061e-03
      4.48548608e-02 6.14892319e-02 2.20958944e-02 6.94899037e-02
      5.25821112e-02 4.10839869e-03 -9.57528129e-03 4.51336764e-02
      3.99672805e-04 6.64224699e-02 -2.14646310e-02 -4.37364317e-02
      6.10468872e-02 1.20635843e-02 -8.29739422e-02 -4.34720069e-02
      6.30092174e-02 3.62176970e-02 2.96340752e-02 -2.46567186e-02
      -3.12902294e-02 3.65346521e-02 1.02385283e-02 -5.81575930e-02
      -1.28894197e-02 7.55436495e-02 5.68014160e-02 -1.06179407e-02
      7.55173489e-02 1.46518461e-02 6.31388724e-02 3.13865803e-02
      1.00260582e-02 2.66928459e-04 6.01142421e-02 6.23041950e-03
      7.00931326e-02 6.06745183e-02 9.36645363e-03 6.63069338e-02
      1.82995126e-02 -5.00071328e-03 1.60297919e-02 5.62708676e-02
      3.24730650e-02 5.45026325e-02 -1.23532256e-02 -1.22949407e-02
      1.46292113e-02 -4.65442538e-02 -9.37904269e-02 -6.39772639e-02
      2.80099548e-02 1.15819201e-02 2.48195007e-02 -1.89272277e-02
      -2.91827545e-02 3.70388143e-02 -4.39180136e-02 -1.28125206e-01
      -4.35908474e-02 1.54393818e-02 5.97896874e-02 1.52580207e-02
      1.55692836e-02 -2.01557968e-02 4.95301373e-02 -3.71027063e-03
      -1.03856120e-02 -7.89873023e-03 6.03946000e-02 2.38385405e-02
      3.24813873e-02 5.90725951e-02 -1.08368113e-03 2.49148216e-02
      1.19651323e-02 4.60271649e-02 2.22486630e-02 6.00412637e-02
      4.21215296e-02 7.97576904e-02 -3.90050523e-02 -2.37092469e-02
      4.09982949e-02 -4.39300761e-02 -6.21852949e-02 -4.85707186e-02
      4.58424129e-02 3.22346762e-02 2.48382576e-02 2.54200445e-03
      -3.04991789e-02 -2.25269739e-02 -2.14293562e-02 -5.12201712e-02
      -4.11961228e-02 3.39620151e-02 8.77085049e-03 6.79638749e-03
      3.83161642e-02 -7.13309227e-03 -1.74046531e-02 -1.64167378e-02
      1.58897564e-02 1.56022618e-02 1.36510180e-02 2.43346812e-03
      7.23489970e-02 5.21276742e-02 3.57563160e-02 5.58018945e-02
      7.19215125e-02 7.77571276e-02 6.11942261e-02 2.46292055e-02
      3.41583565e-02 5.25153838e-02 4.43553290e-05 -8.43535140e-02
      -6.41327426e-02 -8.31695944e-02 -7.86500126e-02 -9.69037265e-02
      -5.10834605e-02 -6.93163127e-02 -3.74330357e-02 -1.23043256e-02
      -5.57270572e-02 -1.49324005e-02 -1.47581911e-02 -1.51276737e-02
      -5.23364693e-02 -6.12203963e-02 -6.81469738e-02 6.35229796e-03
      6.58546109e-03 1.28774007e-03 -9.75983031e-03 4.13486697e-02
      3.44760623e-03 -2.29038503e-02 -3.47311161e-02 -2.36291401e-02
      -3.52676511e-02 3.52310315e-02 4.72680740e-02 1.69125944e-02
      2.78981011e-02 3.76833379e-02 1.79102831e-02 4.88308631e-02
      1.89595353e-02 -2.75914855e-02 -2.76964549e-02 -5.26568405e-02
      -2.13038251e-02 -2.33823098e-02 -5.60673960e-02 -1.17307015e-01
      -1.10746786e-01 -7.92048872e-02 -5.74485101e-02 4.59182933e-02
      5.88284247e-02 2.15576701e-02 1.46008907e-02 4.70536324e-05
      -4.45148908e-02 7.08013726e-03 2.95222681e-02 2.52021477e-03
      -3.88037711e-02 6.53664023e-02 2.75784507e-02 -3.50928344e-02
      4.56697866e-02 -9.88493580e-03 3.01974751e-02 6.93431636e-03
      -7.12097809e-02 -1.60070304e-02 4.83564548e-02 2.65753400e-02
      -2.01007146e-02 1.81876738e-02 -1.92657392e-02 1.18594579e-02
      4.11324203e-02 -1.73982624e-02 -3.46703790e-02 5.21576777e-02
      8.83214641e-04 -1.55216325e-02 3.92275192e-02 -6.23070542e-03
      1.25941047e-02 2.78700776e-02 -4.06269059e-02 3.83819789e-02
      6.21878020e-02 1.36566712e-02 -3.98528576e-02 2.34164260e-02
      2.96347938e-03 1.93055365e-02 5.34126610e-02 3.56369577e-02
      -1.22680590e-02 1.34450654e-02 -1.97921358e-02 -9.97205153e-02
      -4.96873260e-02 -3.01294532e-02 9.40656010e-03 1.24415616e-02
      -1.22126425e-03 -7.46015236e-02 5.48276044e-02 -2.41312310e-02
      -5.60733676e-02 -2.70069242e-02 -1.71295777e-02 1.67569164e-02
      -1.43050859e-02 -9.79361460e-02 -4.75872383e-02 4.12581600e-02
      3.12558413e-02 -2.49670222e-02 -2.44841427e-02 -7.16686714e-03
      3.77839245e-02 3.45238633e-02 -6.88569620e-02 -6.51173070e-02
      7.39902556e-02 3.00655467e-03 -3.38659063e-02 1.95588262e-04
      -2.46060267e-02 5.13005294e-02 4.82393168e-02 -9.52234343e-02
      2.14126650e-02 7.45201334e-02 -2.34377496e-02 2.92405207e-02
      1.03884134e-02 6.91483542e-02 9.58995149e-02 1.03174582e-01
      2.11129133e-02 -1.02189824e-01 -7.02352747e-02 -5.13730571e-02
      -1.09190969e-02 -8.33481463e-05 1.83443986e-02 6.19726405e-02
      4.88017946e-02 -9.42664780e-03 4.05274667e-02 -2.99100904e-03
      -2.16015577e-01 -2.02925667e-01 -9.82047990e-02 2.28178408e-02
      6.96838200e-02 1.51176393e-01 7.03275949e-02 -1.29780129e-01
      -2.05242217e-01 -2.60874540e-01 -1.92621544e-01 -8.39439109e-02
      1.89225969e-03 1.04889623e-03 2.96529811e-02 -2.54194122e-02
      -7.14356750e-02 2.29733400e-02 5.92358001e-02 4.30714227e-02
      3.31526138e-02 3.75502780e-02 5.04259544e-04 -8.06879699e-02
      -9.28622484e-02 4.86241542e-02 9.50970426e-02 1.42107727e-02
      -4.51470464e-02 1.26629248e-02 5.62735498e-02 -4.91149910e-02
      -1.29648089e-01 -6.53741956e-02 -1.73725665e-01 -1.13523774e-01
      -1.70383994e-02 -8.09483137e-03 1.15270140e-02 1.01653710e-02
      -4.67080288e-02 -1.50541350e-01 -2.02243477e-01 -3.72123718e-02
      1.32994261e-02 -7.43298382e-02 -9.53962877e-02 -3.44108306e-02
      1.30771112e-03 -1.64929092e-01 -2.26215437e-01 -1.74738184e-01
      4.93003465e-02 -1.69408962e-01 -2.79266894e-01 -2.14628801e-01
      -4.31184918e-02 5.52051626e-02 2.33877846e-03 -2.42337491e-02
      7.79725462e-02 -1.68934129e-02 -1.76889166e-01 -1.54722944e-01
      -1.97554585e-02 3.99699323e-02 8.55112225e-02 8.45539272e-02
      1.01389609e-01 1.47084340e-01 5.15836999e-02 -1.07011862e-01
      -2.78721809e-01 -2.21373782e-01 -5.84252924e-02 -1.19093070e-02
      -1.08127184e-01 -1.27254069e-01 6.32181158e-03 9.63137820e-02
      2.67645554e-03 -7.93921724e-02 -5.28484397e-03 8.23743269e-02
      7.29366913e-02 4.43160944e-02 6.62169904e-02 1.43524289e-01
      -9.99213457e-02 -2.16444597e-01 -4.35711257e-02 -2.11351514e-02
      -4.47976030e-02 -3.20299082e-02 -3.42797227e-02 -4.54693399e-02
      4.52165008e-02 -2.45538801e-02 -5.43274954e-02 6.98824674e-02
      2.05639284e-02 3.58846132e-03 -2.48967018e-02 -3.39969546e-02
      -4.29579914e-02 2.01811525e-03 1.88436918e-02 -1.89035386e-02
      5.39875627e-02 4.21838984e-02 1.55179715e-02 -2.44799741e-02
      -4.22452800e-02 -4.31957655e-02 8.60785693e-02 4.85246442e-02
      3.87089103e-02 9.95194167e-02 5.42874858e-02 4.91985530e-02
      4.18567797e-03 -1.21268351e-02 -2.79972553e-02 2.06997003e-02
      -2.20588092e-02 -1.33375645e-01 -6.48880238e-03 9.75421444e-03
      4.29331176e-02 -3.96980084e-02 -3.82956751e-02 -9.27191377e-02
      -2.76631713e-02 -6.62603080e-02 -1.51546925e-01 -3.22353728e-02
      2.11235299e-03 1.86945312e-02 -5.51492162e-03 -1.19126868e-03
      -7.13571832e-02 1.91471148e-02 -3.23122367e-03 -4.79217656e-02
      4.50532697e-02 2.35996377e-02 7.24737421e-02 8.33940599e-03
      1.80507842e-02 -5.41089252e-02 -2.73713795e-03 4.77471063e-03
      -5.22712730e-02 1.25181936e-02 4.31858711e-02 5.43600470e-02
      3.35102826e-02 3.83819602e-02 1.17835533e-02 5.27778119e-02
      -9.84042361e-02 -2.14129955e-01 -5.53576574e-02 -3.60210910e-02
      2.57698726e-02 -1.62371695e-02 -1.87228601e-02 -6.36244342e-02
      -3.68285477e-02 -1.05791844e-01 -1.55141830e-01 2.70199291e-02
      6.41691014e-02 5.16096242e-02 2.59186458e-02 -2.25820299e-02
      -4.89492267e-02 -3.27898748e-02 -2.77617574e-03 -7.96214566e-02
      1.33826416e-02 2.46140976e-02 3.96025591e-02 1.42885055e-02
      3.15926201e-03 3.53125017e-03 6.46460354e-02 -1.20817684e-02
      -6.11205660e-02 7.72568211e-02 7.36501515e-02 3.40646766e-02
      5.32682426e-02 3.63766551e-02 4.45133112e-02 6.09726012e-02
      -1.17851846e-01 -1.54944509e-01 -1.74933616e-02 3.63274477e-02
      -2.36696773e-03 -4.52399552e-02 -1.72469057e-02 -8.22267532e-02
      -7.00461641e-02 -1.25501454e-01 -1.03488646e-01 -7.20418151e-03
      1.27050327e-02 -3.85159291e-02 -5.19799218e-02 -4.55413461e-02
      -1.49713174e-01 -1.38864473e-01 9.76098888e-03 -5.81887513e-02
      4.39618751e-02 5.61468378e-02 1.25987390e-02 -3.33989859e-02
      2.56862082e-02 2.80125774e-02 7.63343200e-02 6.58123195e-02
      1.17878197e-02 5.22933714e-02 6.34115189e-02 7.16869021e-03
      2.56696288e-02 6.35732859e-02 1.25582088e-02 1.14080096e-02
      -9.53481793e-02 -5.22201806e-02 4.32023071e-02 2.50017010e-02
      -3.46196666e-02 -3.01459283e-02 -7.42884818e-03 -1.63049877e-01
      -1.64663374e-01 -7.06385598e-02 -4.65538446e-03 8.05231482e-02
      1.66060850e-02 -6.42122328e-02 -4.49209400e-02 -6.58858754e-03
      -1.19180910e-01 -1.07734896e-01 7.83387348e-02 -7.81872775e-03
      6.87090009e-02 9.67019275e-02 4.52021398e-02 3.85612063e-02
      5.44923916e-02 -3.03276796e-02 -3.65502015e-02 -2.44531315e-02
      -2.79294830e-02 7.75437206e-02 7.79240876e-02 3.54297608e-02
      4.15886007e-02 8.90465304e-02 -5.12381904e-02 -5.46632297e-02
      -3.89463231e-02 -1.39188897e-02 8.32183808e-02 4.50078733e-02
      -1.02147525e-02 1.35861784e-02 8.22112784e-02 -3.40615287e-02
      -5.19759394e-02 -7.90771469e-02 -5.65178022e-02 5.94200492e-02
      5.08282781e-02 3.12274806e-02 4.74734977e-02 9.62271616e-02
      -2.06082389e-02 -3.77334505e-02 -1.55501813e-02 -4.77022417e-02
      6.75022751e-02 5.69361262e-02 4.68070619e-02 6.12427481e-02
      1.13180541e-01 -4.35018688e-02 -1.86959561e-02 -6.23424537e-02
      -1.31570503e-01 3.29123102e-02 7.19300210e-02 7.08756521e-02
      7.21333697e-02 7.46955350e-02 -3.36821638e-02 -6.37748092e-02
      1.02435071e-02 -5.78974895e-02 5.11151999e-02 3.51435840e-02
      8.01830087e-03 2.07608212e-02 7.83952847e-02 -1.46501530e-02
      3.99436578e-02 1.16204079e-02 -3.58926766e-02 5.56102283e-02
      1.99812814e-03 -3.64864133e-02 1.79230962e-02 5.80700040e-02
      2.18628608e-02 3.39182168e-02 3.21100466e-02 -1.48823619e-01
      3.94781195e-02 6.93559647e-02 3.21454816e-02 5.48193157e-02
      6.02625459e-02 -1.20396670e-02 3.56933847e-03 -9.66734812e-03
      -9.19810012e-02 6.07691035e-02 3.74002382e-02 6.52337447e-03
      2.66014114e-02 6.01843335e-02 3.04490002e-03 -6.63526505e-02
      2.55861878e-02 1.09166000e-02 6.72499612e-02 4.26551290e-02
      4.49069068e-02 5.05390242e-02 1.07382774e-01 3.63304578e-02
      5.33243977e-02 4.15236801e-02 2.65686307e-02 6.19008690e-02
      6.42657429e-02 3.63339521e-02 5.08952290e-02 9.89300385e-02
      1.64667126e-02 1.71812940e-02 -2.37128790e-02 -4.02127132e-02
      7.56562874e-02 5.42639233e-02 5.38610071e-02 3.77136320e-02
      9.90649685e-02 -3.36804986e-02 -7.78472573e-02 -8.07151496e-02
      -9.24911350e-02 1.35584865e-02 -1.04522088e-03 7.26205762e-03
      4.08010110e-02 4.98697832e-02 -1.05666086e-01 -1.07030042e-01
      4.81240973e-02 -7.52545334e-03 2.51640100e-02 2.26995405e-02
      3.88777219e-02 3.71689983e-02 5.37038669e-02 2.94890930e-03
      4.38898094e-02 5.80229759e-02 1.99197307e-02 3.59318927e-02
      7.48588741e-02 6.38416335e-02 9.68931094e-02 4.65702415e-02
      3.88888009e-02 7.41674453e-02 -5.73939681e-02 -1.22797318e-01
      -1.07326679e-01 -1.05935551e-01 -1.38074178e-02 1.13467164e-02
      6.55541662e-03 -8.11520740e-02 -5.28727882e-02 -9.79522318e-02
      -9.45652947e-02 -9.66096893e-02 -1.94656607e-02 -4.90032844e-02
      -1.81234460e-02 1.31013161e-02 -7.17530027e-02 -4.25513349e-02
      -1.00564514e-03 -9.98709933e-04 -1.22869415e-02 -1.70548651e-02
      -6.15574643e-02 -1.27211660e-01 -8.09290484e-02 -2.22867876e-02
      -7.28589855e-03 8.42019394e-02 1.18036635e-01 9.68535990e-02
      1.28242508e-01 7.80471712e-02 -1.95855349e-02 3.03650238e-02
      8.11745226e-02 6.88636005e-02 -1.12657599e-01 -1.26852527e-01
      -9.41604674e-02 -9.00534838e-02 -1.82746485e-01 -2.11166814e-01
      -1.29963487e-01 -1.04347490e-01 -1.04065187e-01 4.15038988e-02
      9.86565202e-02 6.99958801e-02 9.67844278e-02 -2.00451631e-02
      -4.40881364e-02 9.37760901e-03 9.33082476e-02 2.87626497e-02
      -5.41127101e-02 -7.60730030e-03 -1.93724930e-02 -2.39381678e-02
      4.09901850e-02 -4.32641208e-02 -4.01835376e-03 1.44309076e-02
      -5.95405549e-02 3.95350941e-02 3.71566527e-02 -2.66642999e-02
      -7.61416629e-02 2.33336780e-02 -1.84189510e-02 7.82033615e-03
      2.76831798e-02 3.68695296e-02 -7.85060897e-02 2.75748782e-02
      -1.01217460e-02 -1.95136201e-02 5.27250543e-02 -2.46641096e-02
      -3.55640650e-02 3.48066315e-02 -9.57389921e-02 -9.01165232e-03
      3.98929454e-02 -1.53590767e-02 -6.39439300e-02 4.55064215e-02
      2.10025953e-03 1.11027071e-02 6.50734380e-02 2.60243863e-02
      -9.70849097e-02 2.41156034e-02 3.95720862e-02 2.55273581e-02
      -1.00093465e-02 1.21848965e-02 6.28019646e-02 4.64211702e-02
      -1.07633486e-01 -1.30355597e-01 5.57646602e-02 2.12247968e-02
      -5.17039374e-02 -6.33665770e-02 -4.48095538e-02 1.60411745e-02
      4.26609702e-02 -1.48421183e-01 -1.09873831e-01 1.07006012e-02
      6.69474527e-02 4.86521656e-03 -2.03570649e-02 4.78625633e-02
      8.33612978e-02 6.66537136e-02 -1.09889738e-01 -1.32981986e-01
      2.20049098e-02 4.87886555e-02 -5.00521362e-02 -7.19252303e-02
      -5.41919731e-02 7.45014986e-03 5.89791164e-02 -1.16739295e-01
      1.22030728e-01 5.06996177e-02 -1.39861226e-01 -1.87072799e-01
      -1.14505656e-01 -6.05144724e-02 -1.79118048e-02 1.10336408e-01
      1.25941291e-01 1.64910275e-02 -1.17695071e-01 -1.75185248e-01
      -1.48694113e-01 -7.75331110e-02 -7.39107803e-02 -4.95235808e-02
      1.97839644e-02 8.26298445e-02 1.49932399e-01 1.12369612e-01
      -7.49742985e-03 -7.02204630e-02 -1.21094957e-01 -1.88730016e-01
      -1.41411111e-01 5.55776767e-02 1.27531096e-01 8.04678872e-02
      5.88800944e-02 -2.07848828e-02 -4.61384580e-02 -8.34954828e-02
      -1.63055956e-01 -1.84085086e-01 -1.14262827e-01 1.03378305e-02
      -1.21984772e-01 -1.07953526e-01 -2.60291994e-02 -8.64345487e-03
      3.43572982e-02 3.63070169e-03 -3.31770554e-02 -1.06483437e-01
      -1.10301122e-01 -5.59828393e-02 -1.39805488e-02 -3.61967422e-02
      -3.11349221e-02 1.22989146e-02 -8.55079666e-03 -1.14824481e-01
      -1.25330895e-01 -8.06292146e-02 -1.34816006e-01 -1.31692424e-01
      -1.26580903e-02 2.54393835e-02 5.11144921e-02 2.78455764e-03
      -4.07187715e-02 -8.97236690e-02 -1.07220642e-01 -8.99520665e-02
      -1.62758887e-01 -9.59560797e-02 9.18907486e-03 2.46634129e-02
      -1.87021140e-02 -6.06065765e-02 -6.01170957e-03 -8.50542821e-03
      4.89956364e-02 -6.89810663e-02 -1.85475588e-01 -1.71219528e-01
      -5.49209714e-02 -8.93118680e-02 -1.59450904e-01 -9.90744606e-02
      2.14493964e-02 1.52452335e-01 8.20112005e-02 3.17770988e-02
      3.87036540e-02 4.89074178e-02 2.56866459e-02 -1.72763206e-02
      2.89326031e-02 1.44729167e-01 1.48144374e-02 -1.19892895e-01
      -1.57275110e-01 -9.75386202e-02 -4.33515497e-02 -1.61492303e-01
      -2.00840861e-01 -9.03258473e-02 7.91793987e-02 1.34333715e-01
      5.53539917e-02 -1.37305195e-02 3.24925222e-02 6.84511513e-02
      4.04943600e-02 2.88804737e-03 7.70605877e-02 2.03238443e-01
      6.22126386e-02 -2.85019316e-02 1.52743887e-02 2.03074664e-02
      2.94027571e-02 -3.98811102e-02 -5.10712080e-02 -4.65700515e-02
      6.55881763e-02 5.22671416e-02 1.94477942e-02 8.08631331e-02
      7.62849450e-02 8.50482807e-02 6.64903447e-02 1.53433103e-02
      1.00461422e-02 5.15516177e-02 5.85415997e-02 -4.40661497e-02
      -7.26870671e-02 -1.29901115e-02 5.84633388e-02 2.63969805e-02
      -7.54873455e-03 1.13347024e-02 9.61450934e-02 4.17376906e-02
      -1.31382141e-02 -6.43249555e-03 6.20119125e-02 1.07183725e-01
      7.70146027e-02 9.97141004e-02 6.46352321e-02 7.08173886e-02
      1.89904273e-02 -1.06569510e-02 1.60355810e-02 1.73722524e-02
      3.23855504e-02 -6.40521804e-03 -1.63589008e-02 -3.57237421e-02
      -2.14320738e-02 7.13406801e-02 1.40888132e-02 2.57358905e-02
      3.02309729e-02 4.27994058e-02 2.21976545e-02 -7.34051457e-03
      7.13245291e-03 7.49288052e-02 -1.55445132e-02 -2.13932898e-02
      1.39022414e-02 4.48771194e-02 4.16853577e-02 9.37150698e-03
      1.57236420e-02 -7.64286518e-03 2.94143576e-02 7.13208467e-02
      5.97919859e-02 5.59758842e-02 6.80625811e-02 5.60422502e-02
      1.92678552e-02 7.28054158e-03 5.68433944e-03 4.07982469e-02
      8.43618214e-02 -2.62632463e-02 -9.75183284e-05 -3.41392830e-02
      -4.10937145e-02 -3.84812616e-02 -4.11076359e-02 8.72469228e-03
      8.19601789e-02 7.60849342e-02 8.53572413e-03 1.37926973e-02
      -9.06301476e-03 -7.05163106e-02 -3.13358605e-02 -2.70223916e-02
      2.67244782e-02 8.79924595e-02 6.65377378e-02 2.55066603e-02
      -2.13496741e-02 -4.00354154e-02 -1.85828302e-02 -2.67457380e-03
      2.33172718e-03 -2.99072526e-02 5.29134572e-02 5.75510934e-02
      1.69379395e-02 -1.71872750e-02 -5.24389185e-02 -4.62443829e-02
      2.41605975e-02 4.12214547e-02 2.39379499e-02 5.49309663e-02
      8.14336017e-02 -1.77474960e-03 9.14651714e-03 -6.53398708e-02
      -8.42507184e-02 -9.05169472e-02 -2.02811752e-02 -1.01147946e-02
      9.43736658e-02 7.17202500e-02 -1.96135929e-03 1.22270733e-02
      -3.02283298e-02 -6.45495653e-02 -2.17021927e-02 2.21192800e-02
      -1.29606538e-02 9.10258815e-02 6.08267374e-02 -1.84394438e-02
      -1.82858352e-02 -1.06189944e-01 -1.04140326e-01 -6.45804033e-02
      -2.26965565e-02 -9.61342175e-03 6.18924946e-02 7.91791305e-02
      -8.73050932e-03 -1.73957162e-02 -3.98148783e-02 -6.29667044e-02
      -1.00038750e-02 8.48276820e-03 -6.58652885e-03 6.17233068e-02
      8.93677995e-02 -4.71202917e-02 2.45840847e-02 4.01874408e-02
      2.22749710e-02 3.75892618e-03 5.85703440e-02 -2.39998214e-02
      3.91107574e-02 -1.77031718e-02 -8.85855928e-02 4.08296958e-02
      4.97334078e-02 3.10472455e-02 3.91081758e-02 4.86077219e-02
      -6.22456595e-02 -1.65033899e-02 4.14708368e-02 -3.18350047e-02
      2.54596248e-02 1.89618673e-02 -6.84401533e-03 2.94143911e-02
      3.26537043e-02 -2.96969395e-02 7.78412446e-02 -2.14777957e-03
      -2.48449743e-02 8.84141997e-02 3.10017057e-02 -1.53974416e-02
      3.73579152e-02 3.80752683e-02 -8.27765539e-02 -5.05324304e-02
      2.69495193e-02 -8.23676661e-02 5.16784154e-02 4.20773663e-02
      4.94342558e-02 4.99855056e-02 7.84191564e-02 -2.65896358e-02
      3.73588651e-02 -3.66582125e-02 -1.84398919e-01 -2.68835705e-02
      5.67241237e-02 5.84399663e-02 2.51061302e-02 1.64076015e-02
      -9.23544616e-02 -2.02777740e-02 5.44300824e-02 1.32588530e-02
      1.16558313e-01 5.16404957e-02 2.08309591e-02 4.38473038e-02
      5.15591614e-02 -6.83920234e-02 2.37197112e-02 -4.39217798e-02
      -8.65669996e-02 3.07246167e-02 5.62665239e-02 5.04165739e-02
      5.60690127e-02 -1.99530106e-02 -1.38814539e-01 -2.19061933e-02
      4.67880964e-02 -1.30897671e-01 2.89324466e-02 6.53037801e-02
      2.05395743e-02 3.84068377e-02 4.05916274e-02 -5.58241792e-02
      4.51971330e-02 2.20358428e-02 -5.55101372e-02 6.76109791e-02
      5.52353375e-02 2.86719147e-02 3.74663696e-02 7.14909956e-02
      -6.24058722e-03 4.62805759e-03 3.29724066e-02 -4.55591716e-02
      4.45707515e-02 6.93434849e-02 2.03739405e-02 6.74341321e-02
      1.24064088e-02 -1.30259767e-01 6.69046491e-02 -6.93976041e-03
      -2.59812512e-02 5.75849377e-02 3.59305367e-02 6.51539583e-03
      4.82358858e-02 5.66900186e-02 -4.41331714e-02 1.45420851e-02
      3.15235704e-02 1.12317717e-02 7.28170127e-02 6.69046715e-02
      5.99245355e-02 5.20287268e-02 1.17524557e-01 5.63612543e-02
      -4.13087057e-03 -5.23818061e-02 -5.19482642e-02 5.47022857e-02
      3.42352651e-02 5.82140386e-02 5.33866175e-02 3.97599973e-02
      -4.44549844e-02 -7.60556906e-02 -2.68002804e-02 3.77315432e-02
      1.13760471e-01 6.34594262e-02 2.27369368e-02 5.05104512e-02
      6.15066253e-02 9.13248491e-03 1.29864402e-02 -8.94591138e-02
      -6.04694970e-02 5.02857044e-02 3.69023606e-02 1.28165158e-02
      3.95416655e-02 2.15381440e-02 -4.41303253e-02 -5.74154034e-02
      -1.21626277e-02 -5.53509556e-02 -8.73566419e-03 -3.97976972e-02
      5.17769083e-02 2.98122186e-02 3.43294218e-02 -3.68314199e-02
      -4.01787050e-02 -4.44483384e-02 -5.07015958e-02 2.19053356e-03
      1.56153161e-02 -2.54325625e-02 8.20618868e-03 5.79122677e-02
      -2.51480527e-02 -4.46214192e-02 -5.97346686e-02 -4.97558601e-02
      2.47914996e-02 1.13792708e-02 3.52339819e-02 -1.21952463e-02
      -2.14133449e-02 -5.24721369e-02 -3.55454236e-02 -4.57169451e-02
      -2.89902445e-02 4.66129445e-02 2.36271545e-02 -3.48783433e-02
      1.82424989e-02 1.74778253e-02 -7.13526160e-02 -4.99626026e-02
      -6.27877638e-02 -7.33649284e-02 -3.86758931e-02 -1.04128137e-01
      -2.34069720e-01 -2.28791922e-01 -5.14428392e-02 -4.73864563e-02
      -5.29520400e-02 8.33265334e-02 1.03901163e-01 9.58269015e-02
      1.09728873e-01 -3.31686512e-02 3.71896289e-02 6.80327266e-02
      1.28179833e-01 7.37964064e-02 -6.58998117e-02 -5.59100397e-02
      -4.80041280e-02 -1.83766320e-01 -2.15717956e-01 -1.35544598e-01
      -1.83126591e-02 -7.41658509e-02 -6.66931570e-02 8.44098851e-02
      1.22072130e-01 8.57815072e-02 3.79845612e-02 -2.64324956e-02
      1.02227680e-01 1.22403912e-01 1.51533723e-01 9.23338532e-02
      -4.60703485e-02 4.20996957e-02 -4.55002533e-03 -5.48261926e-02
      1.67383850e-02 -3.86323743e-02 -1.60323754e-02 6.93302900e-02
      -6.64435327e-02 -1.92967076e-02 5.78963347e-02 -6.47275755e-03
      -1.50017096e-02 3.24196368e-02 -1.64925065e-02 9.16283485e-03
      5.97620271e-02 -3.85548617e-03 -3.26887183e-02 5.83180338e-02
      -1.78024396e-02 -8.05976167e-02 5.57914283e-03 -4.88009900e-02
      -1.79388619e-03 6.16081618e-02 -3.00652217e-02 2.25757416e-02
      5.66025116e-02 -5.17772324e-03 1.29143253e-03 3.50216739e-02
      -1.67255178e-02 2.41351090e-02 7.69405738e-02 2.59428397e-02
      -8.22763592e-02 -1.28205046e-02 2.90692896e-02 -2.54327003e-02
      -3.29945683e-02 -2.42138319e-02 4.57699522e-02 6.45515248e-02
      -6.03657216e-02 -1.08054884e-01 6.50355686e-03 1.76839307e-02
      -4.31628302e-02 -7.80390995e-03 -6.43045157e-02 1.60504300e-02
      8.41392130e-02 -7.71508887e-02 -1.49531094e-02 -1.98277319e-03
      1.56376921e-02 -4.06078324e-02 -3.03388741e-02 -1.27526194e-01
      -9.61274467e-03 3.71144935e-02 -4.36384231e-02 -6.35358542e-02
      -9.95538477e-03 1.31318923e-02 -4.99854162e-02 -7.97932688e-03
      -8.31521675e-02 -4.03445549e-02 3.40726152e-02 -7.83393309e-02
      4.11872268e-02 8.18506926e-02 2.88231131e-02 -7.39721768e-03
      -8.69427845e-02 -1.51513651e-01 -1.95001796e-01 -1.79588459e-02
      1.78335272e-02 -6.75105080e-02 -5.90811623e-03 6.69754669e-03
      6.04199828e-04 -5.63869849e-02 -1.71969131e-01 -2.57754952e-01
      -2.52019465e-01 -1.44465744e-01 6.00431226e-02 9.82739627e-02
      8.28836858e-02 5.61207831e-02 1.09642521e-02 2.28033103e-02
      -7.61179952e-03 7.94418678e-02 2.53654718e-02 -3.99522260e-02
      5.10088541e-02 5.40151224e-02 -3.91767779e-03 -1.18230078e-02
      -1.98146626e-02 -2.72562001e-02 -7.04292357e-02 -9.05404910e-02
      -2.13840991e-01 -1.60627440e-01 -2.66159866e-02 2.64917389e-02
      6.01465739e-02 3.52108404e-02 5.47523750e-03 -7.53856748e-02
      -1.45791188e-01 -1.62734181e-01 -2.37894014e-01 -1.08017445e-01
      3.00095603e-02 4.93104942e-03 -6.77312538e-02 -8.26261938e-02
      3.06848669e-03 -2.95756049e-02 -1.20215461e-01 -6.74274713e-02
      2.41622273e-02 2.26395819e-02 1.39282560e-02 5.25504611e-02
      5.69128916e-02 3.38666178e-02 -7.16188028e-02 -7.84020200e-02
      -1.37079999e-01 -1.08288815e-02 9.34005715e-03 -2.64765844e-02
      -5.45140468e-02 -2.67283469e-02 8.31469893e-02 2.04370767e-02
      1.00357458e-02 -1.24031037e-01 -9.92942080e-02 4.62032342e-03
      -4.72597685e-03 -2.15181977e-01 -3.03388685e-01 -1.29595533e-01
      8.75410289e-02 1.30261451e-01 3.41753475e-02 6.19067717e-03
      8.53440017e-02 1.24945007e-01 -5.96133480e-03 -9.09422264e-02
      -2.05710810e-02 1.18640311e-01 3.37444469e-02 -1.77284237e-02
      9.03932191e-03 6.12524860e-02 -2.79409010e-02 -2.02840090e-01
      -3.23301405e-01 -1.57954752e-01 3.50514986e-02 1.23906806e-01
      1.06823958e-01 5.90526909e-02 9.63887349e-02 7.30409846e-02
      -2.56419759e-02 -1.74615577e-01 -1.81009173e-01 -2.07143389e-02
      5.05723655e-02 -7.50846937e-02 -7.17358887e-02 -2.20598951e-02
      7.82698914e-02 7.08040297e-02 5.29189743e-02 -2.97595039e-02
      3.00154705e-02 -5.51224686e-03 -5.63362353e-02 -8.88996478e-03
      2.25234069e-02 9.08626765e-02 7.20334649e-02 9.38578323e-02
      1.91728119e-02 5.51513024e-02 2.30061747e-02 -2.95583196e-02
      -4.99866419e-02 -1.58785805e-02 -3.23755182e-02 3.35016171e-03
      -6.03122711e-02 -2.23839909e-01 -1.26749650e-01 -4.33922969e-02
      -5.16774319e-02 -2.51295567e-02 -2.05090456e-02 9.22667235e-03
      3.53267491e-02 7.18534887e-02 -6.60819337e-02 -5.24190739e-02
      -6.41596969e-03 -2.97819227e-02 3.29978094e-02 4.74420339e-02
      5.28613068e-02 7.93692190e-03 5.65315485e-02 -2.49244366e-02
      1.83262695e-02 4.81376350e-02 1.78467240e-02 4.26065214e-02
      4.82418574e-02 6.71715289e-02 4.49631326e-02 1.93523131e-02
      -3.42736170e-02 1.93734635e-02 -4.44084741e-02 -9.17275250e-02
      -2.32767370e-02 -2.05546599e-02 -2.84047564e-03 1.18759805e-02
      1.38585409e-02 -1.17013887e-01 -4.12401818e-02 -2.97398889e-03
      -6.50603995e-02 -3.72023731e-02 -1.41427545e-02 -1.04797408e-02
      2.66238861e-03 -4.27132510e-02 -1.44004211e-01 -6.43612817e-02
      7.34624937e-02 2.39046733e-03 -1.24997250e-03 7.57154822e-03
      6.62745833e-02 4.21972871e-02 4.67994884e-02 -6.45011812e-02
      -9.92850587e-03 4.66862321e-02 2.83037554e-02 3.20552662e-02
      3.84709947e-02 7.69026428e-02 8.79434943e-02 7.80881867e-02
      -5.73329218e-02 -5.13549149e-03 -6.59372434e-02 -5.51317744e-02
      -4.77570295e-02 -1.36480946e-02 2.62730941e-02 -1.55843170e-02
      -3.13509777e-02 -1.68571562e-01 -8.88730437e-02 -7.02213347e-02
      -3.25170830e-02 -2.88710035e-02 1.61874741e-02 1.27927344e-02
      6.18423969e-02 1.41743971e-02 -1.42585948e-01 -1.26172125e-01
      4.81505431e-02 4.50660847e-03 2.69479454e-02 -2.35347077e-02
      3.75508331e-02 5.97619414e-02 3.52406017e-02 -6.11470342e-02
      1.49403661e-02 -1.69574153e-02 1.11863865e-02 5.90478070e-02
      1.31152747e-02 2.47050133e-02 6.91494122e-02 3.53535712e-02
      -2.58301497e-02 2.50534173e-02 -8.30098912e-02 -8.38142410e-02
      -1.56954937e-02 -9.50335246e-03 -1.78706534e-02 4.30657715e-02
      -9.30962246e-03 -1.16409853e-01 -1.53439716e-01 -1.42458871e-01
      -9.94663090e-02 -2.68029459e-02 -3.83369178e-02 -3.91920842e-02
      1.72154550e-02 5.17494837e-03 -8.29628929e-02 -1.43848225e-01
      -1.54778315e-02 -2.75962949e-02 5.80661781e-02 3.15654427e-02
      5.34468889e-02 7.19843283e-02 6.02925643e-02 -7.60257524e-03
      6.92379326e-02 -2.02307831e-02 -2.46988013e-02 1.29139245e-01
      2.14500669e-02 1.47597985e-02 5.46540283e-02 8.78085867e-02
      7.64975604e-03 2.12213807e-02 -1.31267712e-01 -1.35722399e-01
      -7.10395910e-03 -4.38455641e-02 -5.68996258e-02 7.71780498e-03
      5.43889776e-02 -2.74553206e-02 -9.62669924e-02 -6.50461167e-02
      -9.92228314e-02 2.01335028e-02 -5.96082136e-02 -5.81804849e-02
      1.94601789e-02 5.93177006e-02 1.71818270e-03 -6.31361380e-02
      -1.06847973e-03 -3.61963622e-02 1.35063067e-01 3.27392220e-02
      2.94621773e-02 4.70339879e-02 6.37085736e-02 -1.92067977e-02
      7.97319040e-03 -4.10220139e-02 -1.45981489e-02 6.96622133e-02
      6.34008795e-02 6.58867285e-02 8.42977986e-02 1.26133235e-02
      -1.01571992e-01 -5.67443222e-02 -2.68982481e-02 -5.76520106e-03
      1.08890101e-01 4.26401058e-03 -2.62947287e-02 3.67124081e-02
      5.22196628e-02 -2.62089204e-02 -3.67498957e-02 -3.11564319e-02
      2.00939234e-02 9.82535034e-02 3.19718532e-02 -7.01526133e-03
      8.27147365e-02 6.30208999e-02 -4.38224673e-02 -7.41931051e-02
      3.94102968e-02 -1.75553039e-02 3.05595677e-02 4.67365533e-02
      4.86027934e-02 7.25786835e-02 6.91321446e-04 -1.39969483e-01
      -3.85610852e-04 -4.57292162e-02 -6.14631735e-03 4.58131693e-02
      2.02385020e-02 3.99719551e-03 2.87883803e-02 1.42782656e-02
      -8.24422613e-02 -1.24145988e-02 3.99650484e-02 1.71717852e-02
      4.99247313e-02 9.38035641e-03 -1.51079008e-03 6.40975311e-02
      3.40140462e-02 -5.29527739e-02 3.16680613e-04 -6.18113996e-03
      5.32273129e-02 7.74026588e-02 2.87153944e-02 -3.40131447e-02
      2.65721660e-02 5.09152114e-02 -2.27206033e-02 1.67894494e-02
      -4.67330851e-02 -2.20359694e-02 8.47084001e-02 3.28087062e-02
      1.40973404e-02 3.91518772e-02 5.70134930e-02 -6.78313477e-03
      -3.84842791e-02 -9.38942358e-02 -7.19975084e-02 5.16723990e-02
      2.27789152e-02 -1.76097937e-02 1.63726918e-02 2.40257178e-02
      -7.93858767e-02 -8.10820758e-02 3.78418304e-02 9.46181118e-02
      1.21713333e-01 3.89034748e-02 2.52871290e-02 6.94452897e-02
      8.13915431e-02 4.72523458e-02 4.96702306e-02 3.77272069e-02
      5.40588945e-02 9.75601822e-02 2.26310790e-02 -1.08477790e-02
      8.84464756e-02 7.49140084e-02 3.70189101e-02 3.79936323e-02
      -6.87748864e-02 -8.98019001e-02 -2.47720592e-02 -2.05539092e-02
      -4.77840006e-02 -8.16015899e-02 -8.82413536e-02 -1.38280436e-01
      -1.05203792e-01 -5.71419112e-02 -7.63115436e-02 -8.15912522e-03
      -1.39968945e-02 -5.69844209e-02 1.60923712e-02 -4.78729159e-02
      -1.25507757e-01 -1.09877191e-01 3.12525742e-02 6.58199470e-03
      2.23041121e-02 2.85414374e-03 1.44924631e-03 3.18340510e-02
      -2.35339766e-03 -4.01552916e-02 1.60977896e-02 6.22526221e-02
      1.52102485e-02 2.54550576e-02 4.93581779e-02 2.14749090e-02
      1.28984600e-01 5.65927662e-02 4.40020747e-02 2.67121941e-02
      -1.06205523e-01 -1.20113313e-01 -1.42383948e-01 -2.20902175e-01
      -1.98264912e-01 -8.49789083e-02 -5.86573295e-02 -1.21473439e-01
      -1.15135536e-01 3.84402685e-02 7.86828771e-02 3.27616930e-02
      -4.53620851e-02 -2.01503951e-02 7.93600157e-02 6.49901927e-02
      9.66615230e-02 2.88681202e-02 -6.49131685e-02 -7.65956491e-02
      -1.02720022e-01 -1.34566233e-01 -1.16325051e-01 -1.99834835e-02
      -1.27995024e-02 2.12675482e-02 -3.21735702e-02 3.27452309e-02
      6.56308457e-02 3.36061679e-02 -7.36902328e-03 2.52397377e-02
      9.85115096e-02 7.67229646e-02 1.21447101e-01 4.69951071e-02
      -4.33279760e-02 2.66713593e-02 -2.48305686e-02 -9.25322771e-02
      5.53758480e-02 -3.28728184e-02 -7.03178812e-03 2.74346378e-02
      -5.35167344e-02 2.73069777e-02 2.93967072e-02 -2.72427779e-02
      -3.62532027e-02 4.11852784e-02 -5.40907979e-02 3.47780436e-02
      5.62464818e-02 2.55059637e-03 -6.38678744e-02 -4.48684068e-03
      -1.50634674e-02 -6.52797222e-02 2.87133567e-02 -2.87112910e-02
      -2.97614019e-02 2.30827443e-02 -7.68050849e-02 2.96038259e-02
      9.57809202e-03 -5.91046587e-02 -3.16416211e-02 6.84361951e-03
      -4.58092764e-02 -2.54162261e-03 3.63734439e-02 6.44098921e-03
      -1.65898185e-02 1.00408066e-02 2.63128560e-02 -1.35792959e-02
      1.96639029e-03 -4.28832546e-02 2.94655059e-02 4.83645648e-02
      -5.57763549e-03 -3.76542844e-02 1.22820586e-03 2.11818814e-02
      -1.10565294e-02 1.13810888e-02 1.54725052e-02 2.54672728e-02
      1.33950068e-02 -5.07216305e-02 -3.42455097e-02 6.75827637e-03
      3.45062502e-02 -2.50113141e-02 -7.18805939e-02 -6.76895455e-02
      -6.27701310e-03 -1.96558167e-03 -5.78687042e-02 -8.99771601e-02
      -1.93661302e-02 -6.80940598e-03 -3.17354612e-02 -5.41004203e-02
      -4.05290946e-02 6.30817842e-04 -2.34298352e-02 -9.52067301e-02
      8.94871075e-03 4.97437939e-02 5.20614199e-02 -2.93751489e-02
      -3.42694409e-02 5.27134426e-02 1.14688147e-02 3.69746424e-02
      -7.15382351e-03 -2.04288810e-02 3.81927565e-02 2.78514028e-02
      -1.81546640e-02 -4.38607000e-02 -1.13849004e-03 2.95882002e-02
      3.04210093e-02 -5.31305820e-02 -5.59644252e-02 -7.94479810e-03
      3.85755897e-02 8.55576899e-03 -3.95139046e-02 -2.81288032e-03
      2.71596741e-02 2.12038737e-02 -6.28253073e-02 -5.33913150e-02
      7.79839139e-03 1.76890567e-02 -1.78095661e-02 -1.02220409e-01
      -1.20992847e-02 4.65394631e-02 3.47608738e-02 -7.00279027e-02
      -1.50507586e-02 -1.80145185e-02 2.03624777e-02 -2.52637472e-02
      -5.89584112e-02 3.82497150e-04 6.22131601e-02 7.49149770e-02
      9.00399033e-03 -4.21077088e-02 -8.75047892e-02 7.07165478e-03
      -3.03170327e-02 -7.38169104e-02 -5.90024404e-02 -2.13906844e-03
      7.70459101e-02 3.50876972e-02 -2.36668605e-02 3.41243553e-03
      8.52060213e-04 -1.69589017e-02 -7.43732676e-02 -1.07634598e-02
      4.33179885e-02 3.77871804e-02 -2.33637523e-02 -6.53266162e-02
      -4.77773249e-02 -1.63724162e-02 -1.68222506e-02 -3.93620953e-02
      -4.55456413e-03 3.38025130e-02 4.53013964e-02 1.00641744e-02
      -1.94852762e-02 -4.22179997e-02 -2.61643119e-02 2.08483860e-02
      7.96046946e-03 -3.38935778e-02 -1.20386951e-01 -6.59453794e-02
      1.31815542e-02 5.10218367e-02 5.64896911e-02 3.39726103e-03
      3.26792225e-02 4.40815538e-02 4.21316437e-02 -5.48465550e-02
      -1.78380102e-01 -5.84264658e-02 -3.80023308e-02 -3.62153240e-02
      8.42180289e-03 3.01653910e-02 -8.76009755e-04 5.88396974e-02
      4.49714549e-02 1.13375587e-02 -7.26458943e-03 4.79937438e-03
      -1.05300294e-02 5.87985888e-02 5.00336029e-02 1.26352515e-02
      8.67311880e-02 4.74749170e-02 -5.65058216e-02 -5.59373684e-02
      5.24091013e-02 1.07629206e-02 -1.25848390e-02 -2.61040814e-02
      -1.99824646e-02 4.31034975e-02 2.84488797e-02 -1.81981578e-01
      -1.09635532e-01 4.63686548e-02 3.15365754e-02 1.94591209e-02
      -1.96002964e-02 -9.80808679e-03 3.01828999e-02 1.02542803e-01
      -6.75647855e-02 -4.94298078e-02 5.80891967e-04 -2.93996222e-02
      9.78452619e-03 -1.18542891e-02 -9.34974030e-02 4.56900150e-02
      3.92264314e-02 -8.80387127e-02 -9.06424150e-02 2.53097787e-02
      3.73822339e-02 4.91806753e-02 8.27714335e-03 -4.09191288e-02
      6.89383298e-02 1.07457846e-01 -2.58624610e-02 -4.71129082e-02
      4.94316220e-02 -3.32845822e-02 -3.04997060e-02 -5.53223193e-02
      -5.63409589e-02 2.37340137e-04 3.03688794e-02 -8.59828740e-02
      -3.81895751e-02 9.54919979e-02 9.21894331e-03 1.24931885e-02
      1.42143359e-02 -1.19892880e-02 9.54747386e-03 2.74177492e-02
      -3.04920860e-02 3.08548920e-02 -1.34710697e-02 -4.53198850e-02
      2.46211067e-02 -1.44833717e-02 -7.96802714e-02 2.46004146e-02
      4.03081141e-02 -7.81327635e-02 -5.95496222e-02 2.21546534e-02
      -4.43563759e-02 1.64362267e-02 1.59647558e-02 -3.62234898e-02
      5.87236360e-02 6.44039065e-02 -1.39023140e-02 1.00971619e-03
      3.61622199e-02 -2.06252709e-02 -3.42006572e-02 -1.43239135e-02
      -1.65754259e-02 -6.84733829e-03 7.54904002e-03 -1.06919363e-01
      -2.78541967e-02 -7.50617962e-03 -3.78282741e-04 -8.81337468e-03
      1.41107459e-02 -4.40397020e-03 3.63354906e-02 1.62151698e-02
      -9.34515148e-02 -4.58603352e-02 2.93847080e-03 -5.10336533e-02
      -8.73670913e-03 -1.99835245e-02 -5.26550673e-02 2.61986684e-02
      3.40446569e-02 -2.50635110e-02 6.06595422e-05 2.18374487e-02
      -1.80089008e-02 1.34170866e-02 -8.43971735e-04 -4.76847887e-02
      3.05526461e-02 9.28547606e-03 -9.53798369e-03 1.37774516e-02
      -1.09865572e-02 -6.88837469e-02 -4.61895727e-02 -2.86060534e-02
      -1.66583452e-02 -4.09186305e-03 4.64292330e-04 -8.39827657e-02
      -7.83135369e-02 -3.48577350e-02 -4.90505099e-02 -3.26132737e-02
      -4.48056608e-02 -4.79367338e-02 -2.19335426e-02 -3.92539473e-03
      -5.34127355e-02 -2.79547609e-02 -4.81162332e-02 -6.32965341e-02
      -9.67107341e-03 2.00642645e-03 -2.63064690e-02 -2.38312054e-02
      -3.24702729e-03 -3.07956301e-02 -2.09401678e-02 -8.10002442e-03
      -1.39549794e-02 -3.71374264e-02 3.42957266e-02 -9.52885766e-03
      1.78226568e-02 2.99653076e-02 -1.61376055e-02 -1.36464043e-02
      -1.16298627e-02 -7.53711089e-02 -5.07736430e-02 -8.25394616e-02
      -1.34974942e-01 -7.58523121e-02 1.11034298e-02 -1.44446827e-02
      9.74989869e-03 2.84859352e-03 -2.66283657e-02 6.21139212e-03
      -5.28780185e-02 -1.12367794e-01 -6.75979629e-02 -6.44756993e-03
      -7.69142481e-03 2.17673387e-02 -1.18435128e-02 -1.23751173e-02
      1.40652787e-02 7.67785544e-03 -4.86678332e-02 5.79438545e-03
      1.31577495e-02 1.72015708e-02 -5.31381881e-03 2.73372494e-02
      1.72309820e-02 7.71540180e-02 4.11119014e-02 -3.45686972e-02
      -8.84700287e-03 1.91406123e-02 8.27140640e-03 2.29805857e-02
      5.38780428e-02 3.02550551e-02 5.85395098e-02 -4.14586365e-02
      -8.01308304e-02 -3.42045203e-02 1.65694822e-02 -7.24073425e-02
      -9.28450655e-03 1.33864433e-02 4.19412218e-02 6.44948184e-02
      -3.68296430e-02 -6.11336790e-02 -2.84895133e-02 2.75976136e-02
      -6.33186027e-02 -2.11775266e-02 6.25319779e-02 1.88665148e-02
      7.12109730e-02 3.69736962e-02 -8.46173055e-03 -2.11540274e-02
      4.30429950e-02 7.93338288e-03 1.96500998e-02 2.02842075e-02
      7.75653683e-03 2.87770182e-02 1.35362642e-02 2.03558858e-02
      3.55251655e-02 8.56547952e-02 1.29796071e-02 2.88511105e-02
      2.64068116e-02 -6.22883253e-03 1.97295303e-04 -9.06257480e-02
      -9.82660800e-02 -4.60698456e-02 -1.15856361e-02 -4.96763587e-02
      -5.16205132e-02 3.27613726e-02 6.62657395e-02 3.76776308e-02
      -6.13243058e-02 -9.49678868e-02 -3.84852700e-02 1.55527657e-02
      -4.16775569e-02 1.31191825e-03 3.75897624e-02 -1.16963405e-02
      3.18396352e-02 -8.37226585e-03 -1.16091771e-02 2.03683041e-02
      4.79190946e-02 8.57457798e-03 4.27351817e-02 7.44853988e-02
      5.24322838e-02 5.77408485e-02 8.62698629e-03 1.83752403e-02
      -1.80692393e-02 2.20438018e-02 1.95447244e-02 4.93851043e-02
      3.68109420e-02 5.57420440e-02 4.68048193e-02 -6.24583848e-02
      -8.83683115e-02 -2.33075395e-02 1.50592411e-02 -5.59892990e-02
      -3.64964083e-02 2.21636724e-02 1.43941818e-02 2.00783126e-02
      -4.29991893e-02 -6.54252172e-02 9.76985611e-05 -2.50328593e-02
      -6.25695512e-02 -3.94615158e-03 5.98115511e-02 4.96071838e-02
      4.93737347e-02 -9.68550798e-03 -2.74036024e-02 1.08996429e-03
      2.40031183e-02 5.17429027e-04 4.67777671e-03 6.02519363e-02
      4.07983474e-02 3.68869118e-02 7.46233910e-02 1.70236994e-02
      5.25730923e-02 2.31969841e-02 2.80167325e-03 2.38135941e-02
      6.24504220e-03 -6.96320981e-02 -6.77842349e-02 -9.13751870e-02
      -1.23549253e-01 -6.87895268e-02 -7.67621398e-02 -9.58246142e-02
      1.00527499e-02 1.38144325e-02 -6.83346242e-02 -4.28317785e-02
      -4.28942479e-02 -3.27236652e-02 3.48799955e-03 -2.65032146e-02
      -3.47905271e-02 -3.61627247e-03 7.62653723e-02 -3.67008289e-03
      1.70153324e-02 3.89088951e-02 1.37137873e-02 -2.58051790e-02
      8.96134370e-05 -9.51155182e-03 5.39490394e-02 4.69736382e-02
      3.02347299e-02 4.59620468e-02 5.81173226e-02 5.82067445e-02
      5.06040640e-02 5.17724678e-02 6.79736808e-02 5.22523746e-02
      -4.65162285e-02 -1.04661725e-01 -9.78395268e-02 -1.17907658e-01
      -7.32461587e-02 -4.14028913e-02 -3.25562991e-02 -1.51869841e-02
      -3.43273170e-02 -9.14330874e-03 -3.35666770e-03 7.72591075e-03
      -2.98484229e-02 5.66303497e-03 3.39068696e-02 3.15343998e-02
      8.05436820e-02 3.56302001e-02 -5.93763068e-02 -2.90289782e-02
      -3.55632678e-02 -4.80284654e-02 -4.97734128e-03 3.50582637e-02
      -3.03755049e-02 2.84525491e-02 -3.29142250e-02 -1.41072469e-02
      4.21049781e-02 6.83984235e-02 2.52271611e-02 5.27785197e-02
      3.55670378e-02 1.00045688e-02 3.82729545e-02 1.19684162e-02
      -5.99510185e-02 -4.00973344e-03 3.81659856e-03 -1.81013066e-02
      3.59073691e-02 -2.96834111e-03 1.32304048e-02 7.15232641e-02
      -3.05940546e-02 5.48128225e-02 4.25848030e-02 -6.33074902e-03
      -6.42956886e-03 -1.22186048e-02 -7.03123361e-02 9.24290530e-03
      5.86902052e-02 6.39598444e-02 -9.60012600e-02 8.05571582e-03
      4.33916822e-02 -8.42941273e-03 2.53805798e-02 -7.57530481e-02
      2.03132886e-03 4.95870486e-02 -3.76297161e-02 -2.88615786e-02
      3.59262265e-02 3.20022367e-02 -5.46951499e-03 -1.30203068e-02
      -8.57735276e-02 4.58529312e-03 5.64192533e-02 3.24161127e-02
      -4.99436632e-02 2.66397335e-02 6.63580447e-02 3.68879340e-03
      -6.62306175e-02 -4.02877927e-02 4.24436666e-02 3.53843272e-02
      -4.83788475e-02 -5.15199564e-02 3.55936773e-02 2.47273874e-02
      -6.85077235e-02 -2.59736236e-02 -5.43761626e-02 3.63866501e-02
      2.51062680e-02 -6.43001422e-02 -4.71602641e-02 9.79136955e-03
      3.83367687e-02 -7.41338506e-02 -3.68816592e-03 -9.90101025e-02
      6.76607527e-03 1.24135623e-02 -4.82117385e-02 -7.73141459e-02
      2.13449039e-02 1.29382648e-02 -1.52952373e-01 4.57787924e-02
      -1.14152767e-01 -9.70576704e-03 1.79578457e-02 -9.63089392e-02
      -2.09165793e-02 2.98594907e-02 8.53650458e-03 -3.42343599e-02
      -3.65947634e-02 -2.53719576e-02 7.41002476e-03 3.36957201e-02
      -2.49766763e-02 -2.42026672e-02 2.70083714e-02 3.34266131e-03
      -1.12636397e-02 -1.03317626e-01 -4.74340096e-02 3.33352131e-03
      9.74283088e-03 -5.79028502e-02 -5.76863438e-02 -3.58635932e-03
      -2.44357642e-02 -1.13428541e-01 4.89658229e-02 -4.69608940e-02
      -3.28058712e-02 4.36922275e-02 -3.08026504e-02 -4.27352861e-02
      -5.99322729e-02 -5.44694662e-02 -7.09621683e-02 5.95001727e-02
      -7.11997673e-02 -4.76077236e-02 -1.51852695e-02 -4.50810306e-02
      5.36566507e-03 1.53451078e-02 1.45321782e-03 -6.49939571e-03
      -5.67243882e-02 1.13094756e-02 -3.45755601e-03 -1.96264330e-02
      -3.13518308e-02 -8.39477684e-03 1.55285457e-02 2.29711309e-02
      -2.67252885e-03 -1.33637236e-02 2.52448935e-02 2.79937945e-02
      8.19030311e-03 1.05126121e-03 -2.19195173e-03 -3.18131521e-02
      -3.43012847e-02 -7.13765547e-02 5.35864197e-02 -7.82966018e-02
      -3.77404429e-02 -3.30126546e-02 -3.15307453e-02 -5.81567436e-02
      -1.32039906e-02 -3.83373164e-02 -5.83223961e-02 8.07802230e-02
      -5.33431843e-02 -3.18868645e-02 -5.34351170e-02 -4.93328869e-02
      -2.50814972e-03 -4.75013303e-03 1.71339903e-02 4.63600922e-03
      -2.00416166e-02 3.17319520e-02 1.36852777e-02 -1.42447064e-02
      -2.73538800e-03 1.41586903e-02 -1.97391994e-02 3.27983573e-02
      2.47039553e-02 -3.94565091e-02 3.23441289e-02 4.19316478e-02
      -1.16274701e-02 -1.05108768e-02 -3.36148553e-02 1.66549757e-02
      2.01973948e-03 -3.79110910e-02 1.32751450e-01 -2.06834450e-02
      -2.28651688e-02 -4.30117399e-02 -3.31440158e-02 -1.89823133e-03
      -5.28864423e-03 1.94515418e-02 -5.88059947e-02 1.28712207e-01
      -1.23923775e-02 3.46854888e-02 -2.50924286e-03 3.49109955e-02
      8.71734135e-03 -1.00128002e-01 -2.41437256e-02 -4.60287109e-02
      -1.28939182e-01 -1.18389176e-02 5.89773022e-02 -1.60863083e-02
      2.12151092e-03 2.36404128e-02 -2.95788329e-02 3.57232131e-02
      1.70112960e-03 -9.74488780e-02 3.48603129e-02 6.97111711e-02
      2.88059120e-03 9.66636930e-03 2.71940101e-02 -5.45547344e-02
      -3.29868845e-03 -7.65851587e-02 3.36289890e-02 -8.88916031e-02
      3.08468752e-02 5.35917841e-03 3.50979492e-02 2.33731680e-02
      9.56886727e-03 5.09089530e-02 -2.48688739e-02 5.52713275e-02
      -5.95004745e-02 6.66752383e-02 6.44511804e-02 2.68299915e-02
      3.93441739e-03 -5.65611869e-02 4.11301814e-02 -1.43657913e-02
      -1.26056239e-01 -1.15518086e-02 4.60078381e-02 -2.78639477e-02
      -4.29611281e-02 2.81342142e-03 -1.94450654e-02 5.10150045e-02
      3.44560039e-03 -7.91202858e-02 1.28724342e-02 7.17910975e-02
      3.43946088e-03 -1.20642446e-02 1.06655378e-02 -9.59889684e-03
      5.35584912e-02 -2.26444043e-02 4.04621102e-02 -7.25480914e-02
      3.50367390e-02 4.67609614e-02 2.39593182e-02 1.32462690e-02
      7.85839837e-03 7.95245394e-02 9.90435854e-03 7.36343414e-02
      -1.61802862e-02 4.30918820e-02 5.45810834e-02 1.65692735e-02
      -1.47947194e-02 -5.97189404e-02 -5.91981644e-03 -3.49889621e-02
      -9.54913646e-02 -3.98624651e-02 3.55858915e-02 9.36052110e-03
      -1.25648975e-02 2.84189992e-02 -2.77130678e-02 6.82102516e-02
      -1.41406413e-02 -7.84199312e-02 -1.90113597e-02 5.27024381e-02
      2.27821711e-02 4.31457311e-02 -2.97784675e-02 -3.68736349e-02
      3.60685140e-02 -7.06176413e-03 6.72736913e-02 -8.10007676e-02
      3.45626436e-02 2.78139245e-02 1.40213240e-02 1.64177408e-03
      -3.23254578e-02 8.12743008e-02 -9.16565955e-03 5.96706942e-02
      -6.51947856e-02 8.37790072e-02 3.53521109e-02 5.14345840e-02
      -6.51178584e-02 -7.38616139e-02 1.50420396e-02 -2.40907092e-02
      -7.08452612e-02 -4.48828116e-02 5.64525835e-03 -3.44970152e-02
      -1.96021367e-02 -4.25235927e-02 -1.09611545e-02 8.82671587e-03
      5.50394468e-02 -1.43127777e-02 4.19451371e-02 3.42443474e-02
      -2.73285154e-03 -2.34478042e-02 -4.23589423e-02 -5.84650747e-02
      6.39542639e-02 -3.59923765e-02 5.83239347e-02 -4.83503677e-02
      4.74844277e-02 -4.35499288e-02 -1.11406539e-02 1.29245524e-03
      -2.33150683e-02 3.89429629e-02 2.83734035e-03 1.00562520e-01
      4.65579443e-02 5.64518087e-02 -4.42695804e-04 -1.26776928e-02
      -3.27777043e-02 -2.37860363e-02 3.64704384e-03 6.55850256e-03
      -1.83151662e-02 8.74438230e-03 -9.85697098e-03 6.03267457e-03
      -4.41248603e-02 1.79987948e-03 1.15101980e-02 3.54529954e-02
      3.89023498e-02 -1.73350032e-02 -2.56634634e-02 -2.34268117e-03
      -1.40144220e-02 4.10696259e-03 -6.06746227e-03 -1.28236525e-02
      -2.25932454e-04 -4.62059565e-02 5.61196581e-02 -3.58980149e-02
      -1.31047107e-02 -4.92042920e-04 1.35396719e-02 6.15190947e-03
      2.07273010e-02 1.76997632e-02 -4.73940745e-02 1.02803014e-01
      -3.15346196e-02 1.89332776e-02 2.07289606e-02 6.30017370e-03
      -3.19584683e-02 -4.13512066e-03 3.76609638e-02 2.45460542e-03
      -2.56900117e-02 -5.72428852e-02 3.66392289e-03 -1.91112049e-02
      -3.78555730e-02 -3.86966504e-02 -6.66606193e-03 4.20317911e-02
      -1.45296371e-02 -3.35269384e-02 -1.64463632e-02 6.15474246e-02
      2.32012309e-02 2.61419127e-03 -1.11602983e-02 2.53137611e-02
      5.47752343e-02 -4.41606045e-02 1.15061432e-01 -3.01580820e-02
      4.95502725e-02 4.45903987e-02 1.15273185e-02 9.20121372e-03
      1.45579735e-03 8.58887732e-02 -6.54151961e-02 7.24257901e-02
      2.41152998e-02 7.81976059e-02 7.39358068e-02 7.15044653e-03
      5.73476730e-03 -1.97804160e-02 1.42250257e-02 -4.67380583e-02
      -5.02163321e-02 -4.50786650e-02 -5.28975179e-05 2.40302086e-03
      2.04093885e-02 1.94701571e-02 -1.55203894e-03 1.26260733e-02
      -8.67411215e-03 -1.97338946e-02 -7.42827207e-02 -2.78844032e-02
      9.67285782e-03 2.90555172e-02 2.34888475e-02 -1.95064805e-02
      5.62718771e-02 -4.57573868e-02 7.72785842e-02 -3.35310884e-02
      2.42803786e-02 4.67209183e-02 1.70259345e-02 3.41572128e-02
      -1.97563712e-02 1.04908394e-02 3.43120880e-02 1.20012052e-01
      -2.28685085e-02 7.68803712e-03 3.26770358e-02 2.77682003e-02
      -5.94762736e-04 1.79046225e-02 2.06629839e-03 -4.19052057e-02
      -7.51589835e-02 -7.37012327e-02 -1.36697385e-02 -3.53579153e-03
      -3.08227120e-03 1.64903631e-03 1.96232125e-02 4.88182195e-02
      4.11827490e-02 6.37816591e-03 2.23903470e-02 9.15851537e-03
      1.98316425e-02 1.48058766e-02 9.40450933e-03 -1.88410114e-02
      5.14742127e-03 -2.26123631e-02 7.30171204e-02 -6.43529072e-02
      -2.70433482e-02 9.12966020e-03 3.01878583e-02 5.32375537e-02
      1.12240072e-02 7.45923370e-02 7.31219351e-03 1.55673191e-01
      2.70414352e-02 4.76997010e-02 4.39224727e-02 6.51619807e-02
      4.62050829e-03 -3.12250201e-02 -1.00374352e-02 -4.28735428e-02
      -6.72624037e-02 -7.52456337e-02 -3.86243314e-02 -3.11441440e-02
      7.13608321e-03 4.79360996e-03 -1.52847543e-03 2.89957272e-03
      4.21266854e-02 -2.21801959e-02 -1.26673654e-02 -2.56620217e-02
      -2.31745597e-02 -8.61222856e-04 6.96966005e-03 -6.91786641e-03
      2.44823545e-02 -2.21644975e-02 9.15702060e-02 -6.40128255e-02
      -1.37893232e-02 -3.09990114e-03 3.88111472e-02 7.99149740e-03
      -3.26687954e-02 8.81636795e-03 5.65706864e-02 8.28085393e-02
      -1.48375696e-02 -3.20463888e-02 -2.44504735e-02 3.44229583e-03
      -2.84554306e-02 -4.09595296e-03 8.51796661e-03 3.81269003e-03
      -4.30444404e-02 1.65517665e-02 -4.28531468e-02 -3.75071429e-02
      -2.22872030e-02 2.36052591e-02 8.64794776e-02 5.08081131e-02
      1.24667138e-02 -4.29720134e-02 -8.06988031e-03 -1.67498700e-02
      -3.05855297e-03 2.62985155e-02 -3.51341479e-02 -4.64584753e-02
      4.14442644e-03 -1.80651806e-02 4.25287001e-02 -5.81895337e-02
      -9.09292027e-02 -7.22932890e-02 -2.15624738e-02 -5.49772056e-03
      4.72584739e-02 3.53544275e-03 -4.56432886e-02 4.79559079e-02
      -3.95479128e-02 -3.00983321e-02 9.93250217e-03 -8.07296205e-03
      -1.42244305e-02 7.19726756e-02 4.26883847e-02 -2.75079589e-02
      4.28588130e-03 -2.46149153e-02 2.17150152e-02 4.77278642e-02
      -7.36963423e-03 4.37596440e-03 2.15084907e-02 9.67802387e-03
      -3.56071740e-02 4.92949039e-04 -2.14929543e-02 1.58342607e-02
      5.62259741e-02 1.50746163e-02 -4.43901569e-02 2.62502711e-02
      -7.92375859e-03 -6.23787753e-02 1.05180830e-01 -4.96468097e-02
      2.08874494e-02 4.54397164e-02 -4.88814674e-02 -4.45664637e-02
      -5.53909466e-02 -4.90647517e-02 -5.51115833e-02 1.32926136e-01
      -6.14672378e-02 -2.10761111e-02 4.54177856e-02 -2.21329238e-02</_></support_vectors>
  <decision_functions>
    <_>
      <sv_count>1</sv_count>
      <rho>-4.8449296789390157e+00</rho>
      <alpha>
        1.</alpha>
      <index>
        0</index></_></decision_functions></my_svm>
</opencv_storage>
